-5.964792966842651367e-01
1.186452031135559082e+00
-9.890108704566955566e-01
-6.341304779052734375e-01
-6.109182238578796387e-01
-1.126242041587829590e+00
5.574188828468322754e-01
-4.963981509208679199e-01
-1.154456257820129395e+00
-5.799379944801330566e-01
7.890833020210266113e-01
-1.085503458976745605e+00
6.081095933914184570e-01
5.572254061698913574e-01
6.031326055526733398e-01
-1.035236001014709473e+00
9.682554602622985840e-01
-8.468263149261474609e-01
1.004609942436218262e+00
9.809543490409851074e-01
6.052308082580566406e-01
-5.769506096839904785e-01
-2.003137111663818359e+00
-5.149769037961959839e-02
3.890203833580017090e-01
5.735415220260620117e-01
-2.023054361343383789e-01
2.427151441574096680e+00
1.435727238655090332e+00
8.982039242982864380e-02
3.915769815444946289e+00
-3.167092502117156982e-01
-3.865202888846397400e-02
-3.279147148132324219e-01
-4.211564660072326660e-01
-8.148316293954849243e-02
-2.143508195877075195e+00
2.724861145019531250e+00
2.927611827850341797e+00
8.585204482078552246e-01
2.001574188470840454e-01
6.958538889884948730e-01
7.274597883224487305e-01
4.037092030048370361e-01
4.524403810501098633e-01
-3.230765163898468018e-01
-2.655679583549499512e-01
-3.002552747726440430e+00
-5.407829284667968750e-01
2.054438292980194092e-01
1.692035794258117676e+00
-6.827290654182434082e-01
-2.660945653915405273e-01
-1.525222361087799072e-01
-3.729245960712432861e-01
-5.944611430168151855e-01
-6.718950867652893066e-01
1.465164780616760254e+00
-8.560863137245178223e-01
5.781944990158081055e-01
4.677044749259948730e-01
